digraph Tree {
node [shape=box] ;
0 [label="const <= 0.5\ngini = 0.153\nsamples = 216\nvalue = [198, 18]"] ;
1 [label="train_dat <= 0.5\ngini = 0.219\nsamples = 144\nvalue = [126, 18]"] ;
0 -> 1 [labeldistance=2.5, labelangle=45, headlabel="True"] ;
2 [label="Subtracted_value <= 15.0\ngini = 0.278\nsamples = 108\nvalue = [90, 18]"] ;
1 -> 2 ;
3 [label="t_test <= 0.5\ngini = 0.366\nsamples = 54\nvalue = [41, 13]"] ;
2 -> 3 ;
4 [label="Subtracted_value <= 7.5\ngini = 0.461\nsamples = 36\nvalue = [23, 13]"] ;
3 -> 4 ;
5 [label="gini = 0.413\nsamples = 24\nvalue = [17, 7]"] ;
4 -> 5 ;
6 [label="gini = 0.5\nsamples = 12\nvalue = [6, 6]"] ;
4 -> 6 ;
7 [label="gini = 0.0\nsamples = 18\nvalue = [18, 0]"] ;
3 -> 7 ;
8 [label="t_test <= 0.5\ngini = 0.168\nsamples = 54\nvalue = [49, 5]"] ;
2 -> 8 ;
9 [label="Subtracted_value <= 26.667\ngini = 0.054\nsamples = 36\nvalue = [35, 1]"] ;
8 -> 9 ;
10 [label="gini = 0.153\nsamples = 12\nvalue = [11, 1]"] ;
9 -> 10 ;
11 [label="gini = 0.0\nsamples = 24\nvalue = [24, 0]"] ;
9 -> 11 ;
12 [label="Subtracted_value <= 41.667\ngini = 0.346\nsamples = 18\nvalue = [14, 4]"] ;
8 -> 12 ;
13 [label="gini = 0.0\nsamples = 12\nvalue = [12, 0]"] ;
12 -> 13 ;
14 [label="gini = 0.444\nsamples = 6\nvalue = [2, 4]"] ;
12 -> 14 ;
15 [label="gini = 0.0\nsamples = 36\nvalue = [36, 0]"] ;
1 -> 15 ;
16 [label="gini = 0.0\nsamples = 72\nvalue = [72, 0]"] ;
0 -> 16 [labeldistance=2.5, labelangle=-45, headlabel="False"] ;
}