digraph Tree {
node [shape=box] ;
0 [label="const <= 0.5\ngini = 0.137\nsamples = 216\nvalue = [200, 16]"] ;
1 [label="train_dat <= 0.5\ngini = 0.198\nsamples = 144\nvalue = [128, 16]"] ;
0 -> 1 [labeldistance=2.5, labelangle=45, headlabel="True"] ;
2 [label="Subtracted_value <= 15.0\ngini = 0.252\nsamples = 108\nvalue = [92, 16]"] ;
1 -> 2 ;
3 [label="t_test <= 0.5\ngini = 0.346\nsamples = 54\nvalue = [42, 12]"] ;
2 -> 3 ;
4 [label="mean_strl <= 0.5\ngini = 0.444\nsamples = 36\nvalue = [24, 12]"] ;
3 -> 4 ;
5 [label="gini = 0.469\nsamples = 24\nvalue = [15, 9]"] ;
4 -> 5 ;
6 [label="gini = 0.375\nsamples = 12\nvalue = [9, 3]"] ;
4 -> 6 ;
7 [label="gini = 0.0\nsamples = 18\nvalue = [18, 0]"] ;
3 -> 7 ;
8 [label="fscores <= 0.5\ngini = 0.137\nsamples = 54\nvalue = [50, 4]"] ;
2 -> 8 ;
9 [label="mean_strl <= 0.5\ngini = 0.198\nsamples = 36\nvalue = [32, 4]"] ;
8 -> 9 ;
10 [label="gini = 0.278\nsamples = 24\nvalue = [20, 4]"] ;
9 -> 10 ;
11 [label="gini = 0.0\nsamples = 12\nvalue = [12, 0]"] ;
9 -> 11 ;
12 [label="gini = 0.0\nsamples = 18\nvalue = [18, 0]"] ;
8 -> 12 ;
13 [label="gini = 0.0\nsamples = 36\nvalue = [36, 0]"] ;
1 -> 13 ;
14 [label="gini = 0.0\nsamples = 72\nvalue = [72, 0]"] ;
0 -> 14 [labeldistance=2.5, labelangle=-45, headlabel="False"] ;
}