digraph Tree {
node [shape=box] ;
0 [label="avg <= 0.5\ngini = 0.105\nsamples = 216\nvalue = [204, 12]"] ;
1 [label="const <= 0.5\ngini = 0.054\nsamples = 144\nvalue = [140, 4]"] ;
0 -> 1 [labeldistance=2.5, labelangle=45, headlabel="True"] ;
2 [label="Subtracted_value <= 15.0\ngini = 0.105\nsamples = 72\nvalue = [68, 4]"] ;
1 -> 2 ;
3 [label="num_streamlines <= 0.5\ngini = 0.198\nsamples = 36\nvalue = [32, 4]"] ;
2 -> 3 ;
4 [label="fscores <= 0.5\ngini = 0.278\nsamples = 24\nvalue = [20, 4]"] ;
3 -> 4 ;
5 [label="gini = 0.198\nsamples = 18\nvalue = [16, 2]"] ;
4 -> 5 ;
6 [label="gini = 0.444\nsamples = 6\nvalue = [4, 2]"] ;
4 -> 6 ;
7 [label="gini = 0.0\nsamples = 12\nvalue = [12, 0]"] ;
3 -> 7 ;
8 [label="gini = 0.0\nsamples = 36\nvalue = [36, 0]"] ;
2 -> 8 ;
9 [label="gini = 0.0\nsamples = 72\nvalue = [72, 0]"] ;
1 -> 9 ;
10 [label="train_dat <= 0.5\ngini = 0.198\nsamples = 72\nvalue = [64, 8]"] ;
0 -> 10 [labeldistance=2.5, labelangle=-45, headlabel="False"] ;
11 [label="Subtracted_value <= 15.0\ngini = 0.252\nsamples = 54\nvalue = [46, 8]"] ;
10 -> 11 ;
12 [label="t_test <= 0.5\ngini = 0.346\nsamples = 27\nvalue = [21, 6]"] ;
11 -> 12 ;
13 [label="Subtracted_value <= 7.5\ngini = 0.444\nsamples = 18\nvalue = [12, 6]"] ;
12 -> 13 ;
14 [label="gini = 0.375\nsamples = 12\nvalue = [9, 3]"] ;
13 -> 14 ;
15 [label="gini = 0.5\nsamples = 6\nvalue = [3, 3]"] ;
13 -> 15 ;
16 [label="gini = 0.0\nsamples = 9\nvalue = [9, 0]"] ;
12 -> 16 ;
17 [label="Subtracted_value <= 41.667\ngini = 0.137\nsamples = 27\nvalue = [25, 2]"] ;
11 -> 17 ;
18 [label="gini = 0.0\nsamples = 18\nvalue = [18, 0]"] ;
17 -> 18 ;
19 [label="t_test <= 0.5\ngini = 0.346\nsamples = 9\nvalue = [7, 2]"] ;
17 -> 19 ;
20 [label="gini = 0.0\nsamples = 6\nvalue = [6, 0]"] ;
19 -> 20 ;
21 [label="gini = 0.444\nsamples = 3\nvalue = [1, 2]"] ;
19 -> 21 ;
22 [label="gini = 0.0\nsamples = 18\nvalue = [18, 0]"] ;
10 -> 22 ;
}